digraph Tree {
node [shape=box] ;
0 [label="lstat <= 7.81\nmse = 92.491\nsamples = 253\nvalue = 23.049"] ;
1 [label="rm <= 7.435\nmse = 84.345\nsamples = 86\nvalue = 32.492"] ;
0 -> 1 [labeldistance=2.5, labelangle=45, headlabel="True"] ;
2 [label="mse = 41.903\nsamples = 68\nvalue = 28.978"] ;
1 -> 2 ;
3 [label="mse = 21.812\nsamples = 18\nvalue = 45.767"] ;
1 -> 3 ;
4 [label="lstat <= 15.0\nmse = 27.121\nsamples = 167\nvalue = 18.186"] ;
0 -> 4 [labeldistance=2.5, labelangle=-45, headlabel="False"] ;
5 [label="mse = 12.255\nsamples = 87\nvalue = 21.566"] ;
4 -> 5 ;
6 [label="mse = 17.363\nsamples = 80\nvalue = 14.511"] ;
4 -> 6 ;
}